#include "PES.h"
//#include "eispack.h"


//const int N_neuron1 = 4;
//
//const int n_link1[] = {3, 45, 55, 1};
//
//const double weights1[] = {
//				-1.8137856721878052, -0.8411198854446411, 0.9814311265945435 , 0.0010019714245572686, 0.005287978798151016, -0.022478671744465828, -0.11766596883535385, 1.2317017316818237, -2.2313878536224365, -0.2546023726463318, 0.12652632594108582, 2.1160457134246826, -0.0001860322809079662, 0.00018798967357724905, -0.0010448393877595663, -0.8787221908569336, -1.1042535305023193, 2.2266736030578613, -0.6668550968170166, 1.757682204246521, -1.833733081817627, 1.710262417793274, 0.40376120805740356, -1.356728434562683, -0.00011898234515683725, 0.0005239053862169385, -0.0025428584776818752, -0.0009983507916331291, -0.005264406558126211, 0.022377584129571915, -0.17510667443275452, -0.9088700413703918, 2.258084535598755, 0.6097411513328552, 1.1184089183807373, -1.9038522243499756, 2.0635476112365723, -0.10184989869594574, -2.276218891143799, -0.4985051155090332, -1.2321383953094482, 1.2245194911956787, 0.0010065759997814894, 0.00531185045838356, -0.02257898636162281, 0.00027303272509016097, 0.0002423556725261733, -0.0008063327986747026, -0.546805202960968, -1.0625557899475098, 1.2319071292877197, -0.5654962062835693, 1.6911369562149048, 7.010765552520752, -0.44910722970962524, 1.4337912797927856, -2.540318727493286, 0.26765143871307373, 0.3370231091976166, -1.8627703189849854, 0.8782783150672913, -1.4508943557739258, 0.34364545345306396, -3.513711452484131, 1.86790132522583, -1.3735731840133667, 0.6112672090530396, 3.9768998622894287, 1.161882758140564, 0.6931156516075134, 1.0956124067306519, -0.5845047235488892, -0.0008232127875089645, -0.0038582857232540846, 0.016594044864177704, -0.32187318801879883, -0.4815059304237366, 2.621610641479492, -0.0003367681638337672, -0.003278515301644802, 0.014822831377387047, -0.01963762938976288, 0.7354430556297302, -1.4215346574783325, 0.533545196056366, -1.230388879776001, 2.8004112243652344, 0.11721178144216537, 1.262597918510437, -2.083458185195923, -0.9921528697013855, 0.568538248538971, -0.08649450540542603, -0.2004091441631317, 1.3129898309707642, -3.8816781044006348, 0.00512491911649704, 0.02149532362818718, -0.09602559357881546, 0.22798259556293488, -1.2293840646743774, 3.951953172683716, 0.5729462504386902, -1.2767938375473022, 2.929901599884033, -1.5196583271026611, -0.8108179569244385, 0.9835734367370605, -0.6174086928367615, 0.34267139434814453, -5.586648464202881, 0.5146126747131348, 1.0630645751953125, -1.8844473361968994, 0.5973253846168518, -0.7328829765319824, 2.59246563911438, -0.224659264087677, 0.6562930345535278, 1.141789197921753, -0.9651635885238647, 1.3296592235565186, -2.1287038326263428, -0.48581743240356445, 0.4166998267173767, -1.3066949844360352, 0.5131958723068237, 1.0865423679351807, -1.9140329360961914, -2.8397836685180664, 0.7606666088104248, -0.09195800870656967, -0.08154396712779999, -1.2806050777435303, 1.0105831623077393,
//				0.059664446860551834, 0.0020401543006300926, -0.30428197979927063, -0.27410364151000977, 0.0011230420786887407, 0.05390750616788864, -0.5596845149993896, 0.33083227276802063, 0.0012485646875575185, -0.0020289160311222076, 0.10652320086956024, -0.13688263297080994, 0.7270633578300476, 0.3205175995826721, 0.002048025606200099, -0.0009184200316667557, 0.2465979903936386, -0.043214038014411926, -0.40393903851509094, 0.24446231126785278, 0.8817018270492554, -0.4157552123069763, -0.22854618728160858, -0.38072115182876587, -0.0013562501408159733, -0.41694119572639465, -0.0027237054891884327, -0.14396809041500092, 0.45354020595550537, -0.305533766746521, -0.4385722279548645, 0.03843158856034279, 0.00934616755694151, -0.04963873699307442, 0.4561963975429535, 0.019387565553188324, 0.5533688068389893, -0.13193532824516296, 0.09982458502054214, -0.6099017262458801, -0.5468407869338989, -0.13020619750022888, -0.24449945986270905, -0.19590440392494202, 0.4629911780357361 , -1.0988866090774536, -0.002544695045799017, -0.06154504790902138, 0.023545652627944946, 0.0006528324447572231, -0.4857480525970459, 0.5088947415351868, -0.22318591177463531, 0.0005180303705856204, 0.0025372602976858616, 0.0689760372042656, 0.2880645990371704, 0.4239712059497833, -0.2914365530014038, -0.0025554923340678215, -0.0008496842347085476, -0.24334466457366943, -0.16840656101703644, -0.08636882901191711, -0.18523013591766357, -0.1230127140879631, 0.05663428083062172, -0.8959645628929138, 0.3165280520915985, 0.0020558100659400225, 0.31345510482788086, 0.0005627212231047451, -0.10310924798250198, 0.26940709352493286, 0.10658267885446548, -0.24350622296333313, -0.2984035909175873, -0.003964258823543787, 0.7084092497825623, 0.2604096829891205, -0.7903271913528442, -0.491774320602417, 0.20062486827373505, 0.5544469356536865, 0.7130213975906372, -0.46737444400787354, -0.4156440794467926, 0.25966712832450867, -0.4023911952972412, -0.08270671218633652, -0.026628106832504272, 0.002169704297557473, 0.1337771713733673, -0.11566774547100067, 0.0003966287476941943, -0.06241695210337639, 0.11014082282781601, 0.12356096506118774, 0.0005359968054108322, -0.0021602287888526917, -0.14819781482219696, 0.08599593490362167, 0.2419549971818924, -0.15406867861747742, 0.0021797011140733957, -0.00024088863574434072, -0.10964218527078629, -0.8164719939231873, 0.209913969039917, 0.09855805337429047, -0.10362507402896881, 0.373248815536499, -0.6514338254928589, 0.14058874547481537, -0.0015630143461748958, -0.149820014834404, -0.001944077550433576, 0.0942791998386383, -0.2990393340587616, 0.03489524871110916, 0.011475622653961182, 0.29607269167900085, 0.010107575915753841, -0.356781005859375, -0.3204679787158966, -0.05562037229537964, 0.30427634716033936, 0.06751463562250137, -0.2920440435409546, 0.18576174974441528, 0.32656505703926086, 0.1608239859342575, 0.0005876009236089885, 0.3076142966747284, -0.1464015543460846, 0.13203594088554382, 0.005115206819027662, 0.4825655221939087, -0.21775655448436737, 7.650836778338999e-6, -0.17235954105854034, 0.48630329966545105, 0.20820105075836182, 0.0003350655606482178, -0.005095407832413912, -0.29971593618392944, 0.2370677888393402, 0.4289260506629944, -0.17131568491458893, 0.005136867053806782, 0.00038776450674049556, -0.18560932576656342, -1.454410433769226, 0.6225478053092957, 0.2546963393688202, -0.3377145230770111, 0.3941035866737366, 0.35643279552459717, 0.07568924874067307, -0.0039420779794454575, -0.3476484417915344, -0.003356063039973378, 0.19742067158222198, -0.5031790733337402, 0.12557238340377808, -0.05758628249168396, 0.5155835151672363, 0.02569250576198101, -0.6274643540382385, -0.5308853387832642, 0.01478661224246025, 0.6172821521759033, 0.2709643542766571, -0.451639324426651, 0.46418970823287964, 0.5794814229011536, 0.2657334804534912, 0.23723745346069336, 0.5545763373374939, -0.2888855040073395, 0.2858281135559082, -0.0022920912597328424, -0.25956714153289795, 0.17358963191509247, -0.0006489072111435235, 0.25463736057281494, -0.39447855949401855, 0.2245596945285797, -0.0008346579852513969, 0.0022807202767580748, 0.1815873384475708, -0.17112599313259125, 0.48412758111953735, 0.14488813281059265, -0.0023020505905151367, 0.0004404255305416882, 0.00920026283711195, 0.7369527816772461, -0.40808555483818054, -0.20288681983947754, -0.026024941354990005, -0.12322477251291275, 0.6991886496543884, 0.020312760025262833, 0.0017582251457497478, 0.4520764648914337, 0.002563189249485731, -0.08480101078748703, 0.4437730312347412, -0.08427964895963669, -0.5618504285812378, -1.030058741569519, -0.010361839085817337, 1.2835818529129028, 0.4836405813694, 0.11727830767631531, -1.0277929306030273, -0.11027301847934723, 0.9228377342224121, 0.5048933625221252, -0.3891550898551941, -0.32116687297821045, 0.0020823245868086815, -0.04127838835120201, 0.02193445712327957, -1.2896162271499634, 0.00002309255432919599, -0.12594099342823029, 0.11090521514415741, -0.0005024286801926792, -0.5189449787139893, -0.0007972460007295012, 1.7937201261520386, -0.0004696217074524611, -0.00002187217069149483, -0.008140696212649345, 0.280658096075058, 1.4329601526260376, -0.2310851812362671, 0.00002464773388055619, 0.000535612809471786, -0.2161199301481247, -0.1819097399711609, -0.20706936717033386, -0.005246088374406099, 0.233586385846138, -0.1935184895992279, -0.26134687662124634, 0.2942533493041992, 0.00003385967283975333, 0.07935362309217453, 0.0006917488062754273, -0.08996447175741196, 0.36939752101898193, -0.08507203310728073, -0.3121451735496521, -0.17821525037288666, -0.0011942166602239013, 0.21544232964515686, 0.37925082445144653, -1.0525280237197876, -0.08040360361337662, 0.22067587077617645, 0.1401999294757843, 0.5320075750350952, -0.4450906813144684, -0.13953228294849396, 0.19733209908008575, 0.1830124855041504, -0.03983301296830177, -0.19777192175388336, 0.005878137424588203, 0.5680868625640869, -0.505017101764679, -0.0013352319365367293, -0.5804191827774048, 0.4299883544445038, -0.11341740190982819, -0.0008949462207965553, -0.005854866933077574, -1.0600308179855347, 0.3860730826854706, -0.4014267325401306, -0.18492799997329712, 0.005904791876673698, 0.001815004856325686, -0.2117098569869995, -1.6820026636123657, 0.5079105496406555, 0.5830495953559875, -0.39631691575050354, 0.47286751866340637, -0.3104379177093506, 0.08458972722291946, -0.004635706078261137, -0.8307207822799683, -0.0018018397968262434, 0.7702750563621521, -0.7911416888237, 1.5487178564071655, 0.11338522285223007, 1.5936425924301147, 0.02049878239631653, -1.4782171249389648, -0.7630423903465271, -0.08895234018564224, 0.5600453019142151, 0.4369252920150757, -0.4838819205760956, -0.6656432747840881, 0.44606712460517883, 0.20892012119293213, 0.9879173636436462, -0.3701193332672119, -0.20158590376377106, 0.05071064829826355, -0.0005152910598553717, -0.07735567539930344, -0.04212379828095436, -0.00026620877906680107, 0.050610221922397614, -0.1551632583141327, -0.07066399604082108, -0.0003004611935466528, 0.0005137784755788743, 0.015790367498993874, -0.0735320895910263, -0.27854984998703003, 0.1206207126379013, -0.0005167140625417233, 0.0002660761238075793, 0.0950346291065216, 0.178072988986969, -0.09477435052394867, 0.05080099403858185, 0.17004156112670898, -0.06367083638906479, 0.2821366488933563, -0.13006944954395294, 0.0004627410089597106, -0.03441787511110306, 0.0007671571802347898, -0.010604247450828552, 0.042391885071992874, 0.12086748331785202, 0.08854131400585175, 0.060473330318927765, -0.006035661790519953, -0.04209484905004501, 0.04537329077720642, 0.07357406616210938, -0.08305631577968597, -0.06903178244829178, 0.10932794958353043, -0.5022191405296326, -0.08712099492549896, -0.08532890677452087, 0.05315520241856575, -0.29340213537216187, 0.1319464147090912, 0.6930086016654968, -0.00823060143738985, -1.5020925998687744, 0.536426305770874, 0.0008411136805079877, 0.9886481165885925, -0.8712212443351746, 0.07647384703159332, 0.00023877665807958692, 0.008201302029192448, 1.465137004852295, -0.7478154301643372, -0.18404535949230194, 0.12026083469390869, -0.008266201242804527, -0.0015497818822041154, 0.3314334750175476, 4.673303604125977, -1.4608900547027588, -0.7034890055656433, 0.11794831603765488, 1.1725820302963257, 2.5503692626953125, 0.034753166139125824, 0.006116125266999006, 0.9398559331893921, 0.003246342996135354, -1.0646095275878906, 1.9460597038269043, -2.3411054611206055, -0.5369970798492432, -3.6747992038726807, -0.021836865693330765, 3.701176881790161, 1.9426112174987793, 0.31600141525268555, -1.4599984884262085, -0.8613914847373962, 1.445418357849121, 1.6725451946258545, -1.595558524131775, -0.649827241897583, -2.0362257957458496, -0.08735927194356918, 0.15684539079666138, -0.04493622109293938, 0.0005016234936192632, 0.07385948300361633, 0.04140976071357727, 0.000252617901423946, -0.04614763334393501, 0.1447315216064453, 0.06527813524007797, 0.0002850375894922763, -0.0005002014222554862, -0.013883628882467747, 0.0693034678697586, 0.27039361000061035, -0.11713390797376633, 0.0005029390449635684, -0.0002542566799093038, -0.09167411178350449, -0.18251237273216248, 0.09122176468372345, -0.04991549253463745, -0.1625608205795288, 0.06778916716575623, -0.24915342032909393, 0.12762752175331116, -0.00045381434028968215, 0.03458975628018379, -0.0007362095639109612, 0.009775194339454174, -0.04039817303419113, -0.11992930620908737, -0.08518494665622711, -0.060823701322078705, 0.0058510941453278065, 0.042860738933086395, -0.04322001338005066, -0.06891444325447083, 0.0794365182518959, 0.06517405807971954, -0.10450737178325653, 0.5191373825073242, 0.08437300473451614, 0.08467154949903488, -0.05360362306237221, 0.2609054744243622, -0.12912428379058838, 0.04249800369143486, -0.00048436468932777643, -0.07159071415662766, -0.04102180898189545, -0.00023666587367188185, 0.04420742765069008, -0.13991780579090118, -0.062157586216926575, -0.0002671282272785902, 0.000483065377920866, 0.013129654340445995, -0.06704557687044144, -0.26234108209609985, 0.11420833319425583, -0.00048561286530457437, 0.0002402228128630668, 0.08932873606681824, 0.18193788826465607, -0.08839651942253113, 0.04883468523621559, 0.1586967557668686, -0.06738599389791489, 0.23373344540596008, -0.12501651048660278, 0.00044237799011170864, -0.03434068337082863, 0.0006985082291066647, -0.009690389968454838, 0.03900011256337166, 0.1163126528263092, 0.0827581062912941, 0.05995890870690346, -0.0056379628367722034, -0.0428452305495739, 0.04165373742580414, 0.06638077646493912, -0.0745428055524826, -0.06311185657978058, 0.09961318224668503, -0.5098865032196045, -0.08179143071174622, -0.08245444297790527, 0.05185101926326752, -0.24778799712657928, 0.12622399628162384, -0.01775350421667099, 0.00044744109618477523, 0.07732431590557098, 0.023714547976851463, 0.00024001486599445343, -0.043930016458034515, 0.12597623467445374, 0.11783859878778458, 0.0002688573731575161, -0.0004461413191165775, -0.023609932512044907, 0.07405032217502594, 0.3718457818031311, -0.12326648831367493, 0.0004486346442718059, -0.0002426004793960601, -0.0946679636836052, -0.16902443766593933, 0.09590690582990646, -0.019825682044029236, -0.11537399142980576, 0.15809714794158936, -0.3586709499359131, 0.13102248311042786, -0.0004079940263181925, 0.005352403502911329, -0.0006748149753548205, 0.017359642311930656, -0.06541775166988373, -0.10423232614994049, -0.045389991253614426, -0.001733450684696436, 0.005336735863238573, -0.03277381509542465, -0.0702705830335617, -0.06346624344587326, 0.09244096279144287, 0.0706162378191948, -0.11801393330097198, 0.5960965752601624, 0.11652247607707977, 0.08206314593553543, -0.030634889379143715, 0.2234736829996109, -0.1039181798696518, 0.05241263285279274, -0.0018573538400232792, -0.3236439824104309, 0.1012631356716156, 0.0002310359850525856, 0.2267763763666153, -0.48522472381591797, 0.252731591463089, 0.00009816600504564121, 0.001849221414886415, 0.36735060811042786, -0.1512659341096878, 0.18926888704299927, 0.10002236068248749, -0.0018673032755032182, -0.00042362543172203004, 0.007962783798575401, 1.3378212451934814, -0.4310166835784912, 0.031728338450193405, 0.3766768276691437, -0.9004756212234497, -0.7716399431228638, 0.01660327985882759, 0.0014937783125787973, -0.04386032372713089, 0.0007731011719442904, -0.24182765185832977, 0.6000024080276489, -0.607284665107727, -0.46318525075912476, -0.9454361200332642, -0.004755908157676458, 0.905498743057251, 0.622742235660553, -0.025906385853886604, -0.5485060214996338, -0.1440010517835617, 0.5378164052963257, 0.16575248539447784, -0.4884055554866791, -0.29803597927093506, -0.3661145865917206, -0.15851904451847076, 0.09090276807546616, -0.1921037882566452, 0.0021786349825561047, 0.18259812891483307, -0.08516032993793488, -0.00011270364484516904, -0.14090940356254578, 0.4403834939002991, 0.08948472887277603, -0.00005029425665270537, -0.0021670798305422068, -0.21089380979537964, -0.029822496697306633, 0.4349890947341919, 0.17194102704524994, 0.002195170847699046, 0.0003481039311736822, 0.3427090346813202, -1.2321689128875732, 0.4554058611392975, 0.3659752607345581, 0.23844431340694427, -0.8564138412475586, -1.0755201578140259, -0.49169641733169556, -0.0013702047290280461, -0.39892417192459106, -0.0007163567934185266, 0.1008547693490982, -0.48324519395828247, 0.3739376366138458, 0.23243241012096405, 1.640107274055481, -0.010660707950592041, -2.727245807647705, -0.6100073456764221, -0.04054824635386467, 1.2106707096099854, -0.0895853266119957, -0.5111010074615479, -1.603116750717163, 0.19127635657787323, 0.22611969709396362, 0.1406521052122116, 0.09178750962018967, 0.3202176094055176, -0.07584283500909805, 0.0006687524146400392, 0.08957872539758682, 0.022678347304463387, 0.00027417633100412786, -0.006428613793104887, 0.08196497708559036, 0.12591612339019775, 0.00031531843706034124, -0.0006664320244453847, -0.03281921148300171, 0.04743114858865738, 0.28582313656806946, -0.11898165941238403, 0.0006710875313729048, -0.0002571879012975842, -0.09371408820152283, -0.4095689654350281, 0.12408633530139923, -0.029960881918668747, -0.09380512684583664, 0.16585354506969452, -0.2356678992509842, 0.1532217115163803, -0.0005568595952354372, 0.010730301029980183, -0.0008581100846640766, 0.024556778371334076, -0.08283433318138123, -0.01751364767551422, -0.04147889092564583, 0.027042284607887268, 0.005891088396310806, -0.03256608918309212, -0.08789180219173431, -0.1073324978351593, 0.14735162258148193, 0.04820999875664711, -0.15712976455688477, 0.6066234111785889, 0.1344614177942276, 0.09649091958999634, -0.0355360247194767, 0.3002510070800781, -0.12839509546756744, -0.11908737570047379, -0.0004596328944899142, -0.13966017961502075, 0.19569163024425507, 0.0006041947053745389, -0.26595109701156616, -0.7854630351066589, 0.23689217865467072, 0.0006216708570718765, 0.00045900826808065176, -0.17910555005073547, 0.20750774443149567, 0.07939537614583969, -0.12594160437583923, -0.0004585842543747276, -0.0005812641466036439, -0.27064481377601624, 0.2852824628353119, -0.5012306571006775, -0.14106115698814392, 0.57658851146698, 0.5107383131980896, 0.7302525639533997, 0.2292681783437729, 0.0006556548760272563, 0.1232362911105156, -0.0009588831453584135, 0.014043968170881271, 0.42602527141571045, 0.3948900103569031, -0.45697668194770813, -0.39479103684425354, 0.0006125387735664845, 0.506851077079773, 0.48193272948265076, -0.27322623133659363, -0.7956807017326355, 0.2720201015472412, 0.530983030796051, 0.17267781496047974, -0.6231690645217896, -0.3070620596408844, 0.4263237714767456, -0.8173313736915588, -0.04183207079768181, -0.02447403036057949, 0.002505925251170993, 0.5227097272872925, -0.08880666643381119, 0.00016755521937739104, -0.1525561362504959, 0.4070833921432495, -0.09153268486261368, 0.00042485506855882704, -0.002493538660928607, -0.3550998866558075, 0.2522405982017517, -0.02984742447733879, -0.33754485845565796, 0.0025189598090946674, 0.00011208738578716293, -0.21329617500305176, -0.06956514716148376, 0.5322012305259705, 0.26679614186286926, -0.19694499671459198, 0.69735187292099, 0.5963331460952759, 0.2579762935638428, -0.0018316131317988038, -0.37616419792175293, -0.001837305724620819, 0.3537353575229645, -0.566138744354248, 0.592707633972168, 0.2908361554145813, 0.909120500087738, 0.012053877115249634, -1.0116829872131348, -0.5888479948043823, -0.013357617892324924, 0.17706258594989777, 0.24724741280078888, -0.3980424106121063, -0.33418652415275574, 0.4430168569087982, 0.2321411520242691, 0.3392886817455292, 0.2345881462097168, -0.3131508231163025, 0.8353185057640076, -0.0029353497084230185, -1.4430299997329712, -0.050115469843149185, 0.0009115927387028933, 1.6305010318756104, -3.3831286430358887, -0.38639816641807556, 0.0004668456385843456, 0.002931540133431554, 0.376176655292511, -1.4426277875900269, -0.8118618130683899, 1.7424514293670654, -0.002942498307675123, -0.0011091532651335, 1.1243698596954346, 0.22682461142539978, -2.1574108600616455, -0.338864803314209, 1.3577728271484375, -0.5500492453575134, 0.9448411464691162, -1.5242217779159546, 0.0023953826166689396, 0.3669503331184387, 0.0016894348664209247, -0.129323348402977, 1.3771649599075317, -0.4265323877334595, 0.2543208599090576, -1.5907455682754517, -0.02785363979637623, 1.8028126955032349, 1.448097586631775, 0.8852359652519226, -0.5199468731880188, -1.1461215019226074, 0.2921398878097534, -0.5325265526771545, -1.2054426670074463, -0.29486629366874695, -0.6415535807609558, -0.21945425868034363, 1.7870352268218994, -0.04363479092717171, 0.0004929476999677718, 0.07269057631492615, 0.04121283441781998, 0.00024459511041641235, -0.04511216655373573, 0.1422043889760971, 0.06364181637763977, 0.00027603781200014055, -0.0004915932076983154, -0.013477351516485214, 0.06812259554862976, 0.2664751410484314, -0.11566051095724106, 0.0004942335654050112, -0.000247222778853029, -0.0904783084988594, -0.18238084018230438, 0.08978316932916641, -0.04938048496842384, -0.1605778932571411, 0.06770093739032745, -0.24093839526176453, 0.12633448839187622, -0.00044804741628468037, 0.034479666501283646, -0.0007172995246946812, 0.009717091917991638, -0.0396851971745491, -0.11818791925907135, -0.08392947167158127, -0.060411207377910614, 0.005743779242038727, 0.04285622760653496, -0.04242265596985817, -0.06759094446897507, 0.07700799405574799, 0.06409503519535065, -0.10203912854194641, 0.5148184299468994, 0.08307544142007828, 0.08359265327453613, -0.052776217460632324, 0.25395241379737854, -0.1276835799217224, -0.5930708646774292, 0.0007595124770887196, 0.5629918575286865, 0.31160861253738403, 0.0010090504074469209, -0.4160943627357483, 1.4247428178787231, 0.014601347036659718, 0.0011894537601619959, -0.0007531009614467621, -0.035167012363672256, 0.4361629784107208, 0.3799569606781006, -0.8452709317207336, 0.0007673670770600438, -0.0008504086872562766, -0.45140838623046875, 0.03960118442773819, 1.1821095943450928, -0.4138830900192261, -1.5355290174484253, 0.002462578471750021, -0.5772961974143982, 0.9033335447311401, -0.0002721194177865982, 0.27882081270217896, -0.002343586878851056, 0.033304885029792786, -0.5428645014762878, 0.33839184045791626, 0.3785165846347809, 0.6436687707901001, 0.011127312667667866, -0.27333366870880127, -0.6490908265113831, -0.5626938939094543, -0.6160392165184021, 0.32069331407546997, 0.15438427031040192, 1.0763707160949707, 1.0127836465835571, 0.04716186970472336, 0.24110223352909088, 0.44707027077674866, -1.2086091041564941, 0.28909993171691895, -0.001619276707060635, -0.07837192714214325, -0.011373231187462807, 0.00012494342809077352, 0.22857746481895447, -0.11556844413280487, -0.1479097455739975, -0.00004046405229019001, 0.0016122972592711449, 0.051068004220724106, -0.1946515291929245, -0.0699586421251297, 0.2327832132577896, -0.0016271242639049888, -0.00030239636544138193, 0.15656524896621704, 1.0877786874771118, -0.057812850922346115, 0.017276648432016373, -0.15678353607654572, 1.063491702079773, 1.3220436573028564, -0.22111915051937103, 0.001301012234762311, 0.03431854397058487, 0.0011481563560664654, 0.03667563199996948, -0.01871359907090664, 0.0064297267235815525, 0.06979750096797943, -0.18327879905700684, -0.008773849345743656, 0.12332206964492798, -0.01212356612086296, 0.24923409521579742, -0.1170208677649498, -0.14932437241077423, 0.014591585844755173, 0.2742713391780853, 0.08618295192718506, 0.024649953469634056, -0.07476558536291122, 0.3783896863460541, 0.13435782492160797, 0.04568246006965637, -0.0005056121735833585, -0.07448108494281769, -0.041528791189193726, -0.0002563400485087186, 0.04672715812921524, -0.14610172808170319, -0.06612978130578995, -0.00028924221987836063, 0.0005041782278567553, 0.014129692688584328, -0.0699407160282135, -0.272158682346344, 0.1178961843252182, -0.0005069759790785611, 0.00025754221132956445, 0.09230972826480865, 0.18255235254764557, -0.09196582436561584, 0.05017118155956268, 0.1636471152305603, -0.06778890639543533, 0.2536199986934662, -0.1283125877380371, 0.0004564484115689993, -0.03463635966181755, 0.0007449864060617983, -0.009844433516263962, 0.04078919067978859, 0.12066373974084854, 0.08580754697322845, 0.06099323928356171, -0.005900978110730648, -0.04285646229982376, 0.04365184158086777, 0.06964182108640671, -0.08054719120264053, -0.06575918942689896, 0.10571599751710892, -0.5191605687141418, -0.08503700792789459, -0.08514274656772614, 0.05391685664653778, -0.2647293508052826, 0.12986217439174652, -0.04661672189831734, 0.0005106702446937561, 0.07521827518939972, 0.04164602607488632, 0.0002610056253615767, -0.04746757447719574, 0.14787612855434418, 0.06724753975868225, 0.00029449514113366604, -0.000509209290612489, -0.014421596191823483, 0.07073128968477249, 0.2743831276893616, -0.11875887215137482, 0.0005120591376908123, -0.00026161762070842087, -0.09305346757173538, -0.18236711621284485, 0.0928303599357605, -0.050469253212213516, -0.1649746596813202, 0.06751449406147003, -0.25921115279197693, 0.12903249263763428, -0.0004598023369908333, 0.0346696712076664, -0.000755973276682198, 0.009903798811137676, -0.04121110960841179, -0.12157618999481201, -0.08663499355316162, -0.061211127787828445, 0.005963969975709915, 0.04285988584160805, -0.04412158206105232, -0.07052681595087051, 0.08192086219787598, 0.0664830282330513, -0.1071673035621643, 0.5207703709602356, 0.08577428758144379, 0.08568523824214935, -0.05430121347308159, 0.2699318826198578, -0.13067808747291565, -0.15428584814071655, 0.00907224416732788, 0.6259781122207642, -0.35104039311408997, 0.0010078472550958395, -0.6954373717308044, 0.41486114263534546, -0.17185597121715546, 0.001598958857357502, -0.009032991714775562, -1.3263487815856934, 0.45334964990615845, -0.3422044813632965, -0.19680508971214294, 0.009105134755373001, -0.0003472147509455681, -0.2473067343235016, -2.2912917137145996, 0.5888358950614929, 0.5108471512794495, -0.43274372816085815, -0.08612047880887985, -0.318240761756897, 0.0722450390458107, -0.006912819109857082, -0.7205016613006592, -0.00688914256170392, 0.8647288680076599, -0.9511457681655884, 1.9307477474212646, 0.06414349377155304, 2.0179340839385986, 0.03827832639217377, -1.7738605737686157, -0.9422472715377808, 0.009521941654384136, 1.2645443677902222, 0.4955930709838867, -0.7500418424606323, -0.7952283620834351, 0.6124129891395569, 0.44747301936149597, 1.0998194217681885, -0.26245367527008057, -0.21308869123458862, 0.042084239423274994, -0.0004812970000784844, -0.07117648422718048, -0.04094075411558151, -0.00023380563652608544, 0.043883275240659714, -0.1390976905822754, -0.06163998320698738, -0.00026391996652819216, 0.00048001258983276784, 0.012996947392821312, -0.066652812063694, -0.26093679666519165, 0.11365673691034317, -0.00048253010027110577, 0.0002376944466959685, 0.08889792114496231, 0.18168960511684418, -0.08787277340888977, 0.048631880432367325, 0.1579900085926056, -0.06716800481081009, 0.23108568787574768, -0.12450043857097626, 0.0004403573402669281, -0.03428272902965546, 0.0006917612045072019, -0.009669193997979164, 0.038725920021533966, 0.11565296351909637, 0.08234697580337524, 0.05979831516742706, -0.0056000263430178165, -0.04283828288316727, 0.04134780541062355, 0.06593087315559387, -0.07365988940000534, -0.06275258213281631, 0.09872053563594818, -0.5087562799453735, -0.08129461854696274, -0.08202457427978516, 0.05152300372719765, -0.24577243626117706, 0.12566827237606049, 0.10197450965642929, -0.0007718662964180112, 0.06144830584526062, -0.07140402495861053, -0.0005824399413540959, 0.021511191502213478, -0.02967509627342224, -0.15760350227355957, -0.0007405711221508682, 0.0007646100129932165, -0.16738705337047577, 0.021389976143836975, -0.6258023381233215, -0.0013754629762843251, -0.0007766333874315023, 0.0005009375745430589, -0.038138363510370255, 1.4322078227996826, 0.024535899981856346, 0.026990313082933426, 0.027874888852238655, 0.6369224190711975, 1.7398477792739868, -0.007260099984705448, 0.0005671818507835269, -0.0092606320977211, 0.0017095387447625399, 0.1483641266822815, -0.08687638491392136, 0.43844059109687805, 0.12416910380125046, -0.17074982821941376, -0.013885818421840668, 0.22014692425727844, -0.07710586488246918, 0.0800643116235733, -0.6094474792480469, 0.042757630348205566, 0.08882748335599899, -0.17947843670845032, 0.018131189048290253, -0.036029569804668427, 0.2190418839454651, -0.12748169898986816, -0.036465954035520554, -0.04104548692703247, 0.0004726751649286598, 0.07010509073734283, 0.04074549302458763, 0.00022582770907320082, -0.0430685430765152, 0.1369675248861313, 0.06025722622871399, 0.0002549604105297476, -0.00047144643031060696, -0.012682873755693436, 0.06564012169837952, 0.2568800449371338, -0.1121901348233223, 0.0004738521238323301, -0.00023066306312102824, -0.08776631206274033, -0.18086405098438263, 0.0864928811788559, -0.04807061329483986, -0.15613289177417755, 0.06658069789409637, -0.22447356581687927, 0.12312161922454834, -0.0004346439382061362, 0.03411798179149628, -0.0006728865555487573, 0.009656975977122784, -0.03802775591611862, -0.11369305849075317, -0.08122215420007706, -0.0593097060918808, 0.005494303535670042, 0.04280632361769676, -0.040563277900218964, -0.06477881222963333, 0.0711628720164299, 0.061828505247831345, -0.09629042446613312, 0.5037007331848145, 0.07998349517583847, 0.08080284297466278, -0.050529465079307556, 0.240431547164917, -0.12416905164718628, -0.8471786379814148, -0.001560548203997314, 0.07329803705215454, 0.011047324165701866, -0.00024963985197246075, -0.5432373881340027, -0.8673979043960571, 0.18823210895061493, -0.00039074954111129045, 0.0015533823752775788, -0.3552916944026947, 0.42946475744247437, -0.5774874687194824, -0.30704519152641296, -0.0015668831765651703, 0.00010886949166888371, -0.32731127738952637, 0.1770162433385849, -0.20066094398498535, 0.16767878830432892, 0.9276177287101746, -0.33114904165267944, -0.03630383685231209, 0.44827666878700256, 0.0014372263103723526, -0.15278927981853485, 0.0016709072515368462, 0.1553439348936081, -0.05625397339463234, 0.5926227569580078, -0.08180489391088486, 0.38968178629875183, -0.011565017513930798, -0.26525062322616577, -0.004995225463062525, -0.6254311800003052, -0.11617881804704666, 0.3745184540748596, 0.13121163845062256, -0.5934418439865112, -0.32463255524635315, -0.10820063948631287, 0.5074561834335327, -1.1453886032104492, 0.065202496945858, -0.5172548294067383, 0.01043638400733471, 1.3447272777557373, -0.8154135346412659, 0.0011380520882084966, -1.1802842617034912, 1.05315363407135, 0.9557541608810425, 0.001828084932640195, -0.01038862019777298, -1.0463250875473022, 1.035766363143921, 1.2115169763565063, -0.43706175684928894, 0.010487842373549938, -0.0002039240498561412, -0.6797960996627808, -0.06197992339730263, 1.5133181810379028, 1.0447250604629517, -0.3267604410648346, -0.34644970297813416, 0.4201950132846832, 0.08384348452091217, -0.0075566512532532215, -1.348310947418213, -0.007832765579223633, 0.6103082299232483, -1.3007653951644897, 0.4352082908153534, -0.39949801564216614, 1.63053297996521, 0.03599188104271889, -1.9717873334884644, -1.3500406742095947, -0.49010711908340454, 2.924675464630127, 1.0720012187957764, -1.6009618043899536, 0.05519961193203926, 1.3237314224243164, 0.834128737449646, 0.7570891380310059, 0.64707350730896, -0.4974682629108429, -0.5965441465377808, -0.008326989598572254, -0.5755436420440674, 0.4342413544654846, -0.00167643663007766, 0.5357844233512878, -0.4017172157764435, -0.13290616869926453, -0.002257203683257103, 0.008289407938718796, 0.5444290637969971, -0.49732306599617004, -0.5584411025047302, 0.2754057049751282, -0.008364856243133545, 0.0009720430243760347, 0.30411359667778015, 1.5455008745193481, -0.6196796298027039, -0.4815483093261719, 0.029783137142658234, -0.9826836585998535, -0.36882227659225464, -0.016251059249043465, 0.00615299865603447, 0.7779752612113953, 0.007930836640298367, -0.2724705934524536, 0.49300655722618103, -0.06372395157814026, 0.12861335277557373, -0.7596026659011841, -0.04908612370491028, 0.9148523211479187, 0.5239654183387756, -0.2790074348449707, -1.7305576801300049, -0.5191227793693542, 0.6081421971321106, -0.4593510925769806, -0.4179844558238983, -0.2576952278614044, -0.3086618483066559, -0.13309308886528015, 0.30026620626449585, 0.05173756927251816, -0.0005315792514011264, -0.07843849807977676, -0.04200020805001259, -0.00027980172308161855, 0.051451072096824646, -0.15836983919143677, -0.07283763587474823, -0.0003157558967359364, 0.0005299759795889258, 0.015975939109921455, -0.07459597289562225, -0.28232982754707336, 0.12202119827270508, -0.000533091020770371, 0.00027802743716165423, 0.09616079926490784, 0.181342214345932, -0.09623544663190842, 0.05148736387491226, 0.17261646687984467, -0.06359849870204926, 0.2863209843635559, -0.1313735544681549, 0.00047365017235279083, -0.03447193652391434, 0.0008004764094948769, -0.010281306691467762, 0.04289316013455391, 0.12449859082698822, 0.0907076895236969, 0.061857618391513824, -0.006220404990017414, -0.04286562651395798, 0.045987293124198914, 0.07486305385828018, -0.08721663057804108, -0.07001486420631409, 0.11314993351697922, -0.5212315320968628, -0.08841496706008911, -0.08724316209554672, 0.055202167481184006, -0.2992646098136902, 0.1333828866481781, -0.2935815751552582, 0.0024816826917231083, 0.399250864982605, -0.07939460128545761, 0.0006652111187577248, -0.5585086941719055, 0.7842892408370972, 0.015021500177681446, 0.0008456574287265539, -0.0024697312619537115, -0.27166748046875, 0.5140244960784912, -0.3501642048358917, -0.5123172998428345, 0.002491576364263892, -0.00044504733523353934, -0.41460466384887695, -1.1047346591949463, 0.4248107373714447, 0.10748466849327087, -0.4713580012321472, -0.6055883169174194, 0.21927432715892792, 0.34954965114593506, -0.0018196082673966885, -0.22069840133190155, -0.0021269633434712887, 0.15831221640110016, -0.30672770738601685, 0.2536331117153168, -0.0718422383069992, 0.44171303510665894, 0.008684229105710983, -0.6720031499862671, -0.35892432928085327, -0.2650431990623474, 0.15462163090705872, 0.4379386007785797, -0.262765496969223, 0.03824574127793312, 0.17417390644550323, 0.11337240040302277, 0.2982128858566284, -0.5087106227874756, -0.4845864772796631, -2.4099924564361572, 0.0012264586985111237, -0.22733721137046814, -0.03365400806069374, -0.0008304552757181227, -0.8748899102210999, 0.39548277854919434, 2.874399185180664, -0.0006649453425779939, -0.001221350976265967, 0.0057661565952003, 0.5661908388137817, 3.791538953781128, -0.7407156825065613, 0.0012318975059315562, 0.0009224395034834743, -0.5458319783210754, -0.6077703237533569, -0.2506350874900818, 0.041511502116918564, -0.06413727253675461, -0.3422333896160126, -0.42045241594314575, 0.9752994179725647, -0.0009127843077294528, -0.09440828859806061, -0.00004035471647512168, -0.2224884331226349, 0.806455135345459, -0.6172105073928833, -1.3664214611053467, -0.7148398756980896, 0.0026643972378224134, 0.6699274778366089, 0.7940055131912231, -2.071394205093384, -0.9015515446662903, 0.4388618767261505, 0.3737466037273407, 1.0082238912582397, -0.6651540994644165, -0.29655835032463074, 0.031837839633226395, 0.40883204340934753, -0.44026902318000793, 0.2723686993122101, -0.0009793932549655437, -0.16384747624397278, 0.2676025927066803, -0.0015184066724032164, 0.3126111328601837, -0.4006838798522949, 0.13418500125408173, -0.0015863487496972084, 0.000968052598182112, 0.17745476961135864, -0.1282094120979309, 0.08471114933490753, 0.0029315731953829527, -0.0009904204634949565, 0.0013258560793474317, -0.1567046195268631, 0.7917746305465698, -0.4771775007247925, -0.1000867635011673, -0.3313376009464264, 0.9947202801704407, 0.6989637613296509, 0.17543166875839233, 0.0002593026729300618, 0.40855634212493896, 0.00242615700699389, -0.05602732673287392, 0.37737685441970825, -0.19329404830932617, -0.1079578623175621, -1.375299334526062, 0.000269842246780172, 0.761765718460083, 0.44936567544937134, 0.05536395683884621, -1.418413758277893, -0.03409147635102272, 0.327919602394104, 1.40297269821167, -0.1627843976020813, -0.3157528340816498, -0.12462097406387329, 0.7170945405960083, -0.3077469766139984, 0.5491993427276611, -0.0037281163968145847, 0.0038584587164223194, 0.4693485498428345, -0.0009320800891146064, 0.9815509915351868, 0.30331993103027344, -0.2578783631324768, -0.0012551438994705677, 0.003707977943122387, 0.3440326154232025, -0.6139891147613525, -0.17475365102291107, 0.35996919870376587, -0.0037468248046934605, 0.0005741686327382922, 0.3282746374607086, -1.419864535331726, 0.11180368065834045, -0.5265794396400452, -1.1841567754745483, 0.8443109393119812, 1.1221208572387695, -0.22682292759418488, 0.002658745739609003, 0.7601529955863953, 0.003635565284639597, -0.0496029295027256, -0.07175339758396149, 0.2685259282588959, 0.30422714352607727, -0.7771579027175903, -0.01713218167424202, 0.9266919493675232, -0.05126907676458359, 0.4898426830768585, -1.129653811454773, -0.4801888167858124, 0.2448337972164154, 1.3033710718154907, 0.5448570251464844, 0.025780173018574715, -0.24575330317020416, 1.4427592754364014, -0.09114807099103928, -0.04818390682339668, 0.0005180850275792181, 0.07632232457399368, 0.041796136647462845, 0.0002677706361282617, -0.048706624656915665, 0.15088462829589844, 0.06907239556312561, 0.0003021069278474897, -0.0005165712209418416, -0.014897886663675308, 0.07199085503816605, 0.2775423228740692, -0.11996504664421082, 0.0005195279372856021, -0.0002675416471902281, -0.09414631128311157, -0.1818077117204666, 0.09407171607017517, -0.05087674409151077, -0.16713674366474152, 0.06662353873252869, -0.2681606709957123, 0.12995080649852753, -0.0004647501918952912, 0.03466826677322388, -0.0007719859131611884, 0.010002318769693375, -0.04179738834500313, -0.12280545383691788, -0.08797239512205124, -0.061504267156124115, 0.006056374870240688, 0.042874693870544434, -0.044774726033210754, -0.0719287097454071, 0.08386235684156418, 0.06763575971126556, -0.10926520824432373, 0.5230262279510498, 0.08676908910274506, 0.08636263757944107, -0.05475408956408501, 0.27897733449935913, -0.1317480206489563, -1.262686014175415, 0.005769794806838036, 0.44643309712409973, -0.4447144865989685, 0.0014307853998616338, -0.23737944662570953, -0.42986223101615906, 0.6592479348182678, 0.001827394007705152, -0.005742981564253569, -0.5432440042495728, 0.09149601310491562, 0.1389704793691635, 0.10933903604745865, 0.005798832979053259, -0.0009157321183010936, 0.03400801867246628, -1.391032099723816, 0.6171950101852417, 0.40687859058380127, 0.5322607755661011, 1.2164002656936646, -0.7995835542678833, 0.041942380368709564, -0.004116627853363752, -0.6687806248664856, -0.005842128302901983, 0.3588191270828247, -1.0833936929702759, 0.39840805530548096, 0.23423674702644348, 1.5602082014083862, 0.02959350310266018, -1.7004796266555786, -1.1536303758621216, -0.8465756177902222, 2.0192434787750244, 0.09776503592729568, -1.0314394235610962, -0.6209275126457214, 0.8456341624259949, 0.5547724962234497, 0.1466427445411682, 1.2337461709976196, 0.31427115201950073, -0.8126304149627686, -0.00006098950689192861, 1.280370831489563, -0.08265003561973572, -0.00004637090751202777, -1.9054198265075684, 1.8171976804733276, 0.12781141698360443, -0.00002257475716760382, 0.00005750256605097093, -0.6163821220397949, 1.3060638904571533, 0.5329595804214478, -0.9986465573310852, -0.00006281754758674651, -0.00001132231318479171, -0.5639188885688782, -0.43399718403816223, 1.4189472198486328, -0.14387650787830353, -0.6617248058319092, 0.6945016384124756, -0.6117898225784302, 0.7116735577583313, 0.00004493507731240243, 0.030834568664431572, -0.0006354309152811766, 0.31430041790008545, -1.2783576250076294, 0.808483362197876, -0.10447212308645248, 1.1788582801818848, 0.008962439373135567, -1.08406400680542, -1.2571732997894287, -0.5349445343017578, 0.8680036664009094, 1.0471928119659424, -0.606062114238739, 0.1203339472413063, 0.6671295166015625, 0.35921791195869446, 1.3587939739227295, 0.14999312162399292, -0.6346885561943054, -0.05350704491138458, 0.0005377176566980779, 0.07923029363155365, 0.041930459439754486, 0.00028498144820332527, -0.05277986824512482, 0.16348019242286682, 0.07464901357889175, 0.00032160698901861906, -0.000536065548658371, -0.016478264704346657, 0.07573486119508743, 0.284221351146698, -0.12256579101085663, 0.0005392511957325041, -0.00028247444424778223, -0.09681680053472519, -0.18220311403274536, 0.09685344249010086, -0.05162426084280014, -0.17611610889434814, 0.061575666069984436, -0.29391923546791077, 0.1315074861049652, -0.0004776512796524912, 0.03422596678137779, -0.0008128068875521421, 0.010378447361290455, -0.04328197240829468, -0.124913290143013, -0.09205406159162521, -0.06183050945401192, 0.006289266515523195, 0.042759090662002563, -0.04642225429415703, -0.0761527344584465, 0.0887347087264061, 0.07104004919528961, -0.11489658057689667, 0.5203982591629028, 0.08880811184644699, 0.08747290074825287, -0.05531713739037514, 0.3094552755355835, -0.1336337774991989, -0.5188524723052979, 0.004346461035311222, 0.7326988577842712, -0.3048786520957947, 0.00008869776502251625, -1.375643253326416, 1.587080717086792, 0.2534634470939636, 0.00007540720253018662, -0.004328361712396145, -0.5932722687721252, 0.9521957039833069, 0.9970744848251343, -0.9319133162498474, 0.00436618085950613, 0.00020358769688755274, -0.6170551180839539, -0.6435904502868652, 1.1704349517822266, 0.4187462031841278, 0.012536429800093174, 0.5129936337471008, -0.5906757712364197, 0.5723971724510193, -0.003203630680218339, -0.47214171290397644, -0.0010812310501933098, 0.26679396629333496, -1.1850422620773315, 0.607767641544342, 0.2862415313720703, 1.6843863725662231, -0.0030670426785945892, -1.7610641717910767, -1.2222282886505127, -0.5190584063529968, 1.3955141305923462, 0.7319625020027161, -0.6221671104431152, -0.44142505526542664, 0.6085428595542908, 0.23128603398799896, 0.5616410970687866, 0.2172173410654068, -0.5603017807006836, -1.7718719244003296, -0.0004975353949703276, 1.2914634943008423, 0.47378474473953247, 0.00014954371727071702, -1.3704203367233276, 4.668473243713379, 0.9691199660301208, 0.00017396979092154652, 0.0004942160448990762, -0.41773244738578796, 1.4684762954711914, 1.3850719928741455, -2.1057896614074707, -0.0005033958586864173, -0.00018289624131284654, -1.5031880140304565, -0.40067198872566223, 1.8835790157318115, -0.22857236862182617, -2.6672749519348145, 0.8805650472640991, -0.5662748217582703, 1.9154369831085205, 0.0004980380181223154, 0.22348321974277496, 0.000829736643936485, 0.3172628581523895, -0.835525631904602, 0.7822536826133728, 0.03573247790336609, 1.7594468593597412, 0.009078576229512691, -0.35022279620170593, -0.9416227340698242, -1.6674580574035645, 0.6453486680984497, 1.2361842393875122, 0.2862435281276703, 2.0256314277648926, 2.0005056858062744, -0.080882228910923, 0.8827686309814453, 1.2120845317840576, -2.191227674484253, 0.5635823607444763, -0.0011128077749162912, -0.1890946477651596, 0.03556510806083679, -0.000059462043282110244, 0.5923890471458435, -0.2112167477607727, -0.3037981688976288, -0.0001443409128114581, 0.0011070307809859514, 0.1477629393339157, -0.3891487717628479, -0.05137110501527786, 0.2907963693141937, -0.0011185742914676666, -0.0000789576442912221, 0.2709364593029022, 0.89289391040802, -0.1751941740512848, -0.08620590716600418, -0.012150740250945091, 0.2912810444831848, 0.6467180848121643, -0.25051191449165344, 0.0007689805934205651, 0.1386839598417282, 0.0007056119502522051, -0.06275374442338943, 0.07052765041589737, -0.3815470039844513, 0.2736355662345886, -0.45013388991355896, -0.004243271891027689, 0.4560669958591461, 0.07148721814155579, 0.44070136547088623, -0.06497184187173843, -0.3466230630874634, -0.004307315684854984, 0.8797662258148193, -0.046676985919475555, 0.037839218974113464, -0.17503635585308075, 0.5294522047042847, 0.16697192192077637, -0.8264114260673523, -0.0010714763775467873, 0.08866526931524277, 0.22109466791152954, -0.0005588738713413477, -0.38153475522994995, 0.18945834040641785, 0.6560519933700562, -0.0006336310179904103, 0.001066181343048811, -0.028454642742872238, 0.39140981435775757, 0.73126620054245, -0.3387206196784973, -0.0010755860712379217, 0.0004928893758915365, -0.2926695942878723, -0.5242488384246826, 0.0600125715136528, -0.23432424664497375, 0.15722325444221497, -0.1279851794242859, -0.30594104528427124, 0.29592177271842957, 0.0007072942098602653, 0.3201078176498413, 0.0013735996326431632, -0.007647105026990175, 0.13303668797016144, 0.3758823275566101, -0.22189250588417053, -0.029094036668539047, -0.006476270966231823, 0.15541616082191467, 0.13247381150722504, -0.6902295351028442, -0.18490180373191833, 0.294670432806015, 0.4240701496601105, -0.07884899526834488, -0.28197458386421204, -0.23734721541404724, 0.4571076035499573, -0.31745266914367676, -0.1623462438583374, 0.017827073112130165, -0.0015380347613245249, -0.21821358799934387, -0.11391281336545944, -0.000052966126531828195, 0.31980228424072266, -0.12097863852977753, 0.006925884634256363, -0.00011846252164104953, 0.0015325706917792559, 0.24980847537517548, -0.3285333514213562, 0.26079607009887695, 0.3404948115348816, -0.0015429508639499545, -0.000013632277841679752, 0.34485918283462524, -0.496149480342865, -0.14504699409008026, 0.022229306399822235, 0.3280491828918457, 0.1328810155391693, -0.4434022307395935, -0.36623239517211914, 0.001172983436845243, -0.03841628506779671, 0.0009107849909923971, -0.2046164721250534, 0.3121367394924164, -0.3886403441429138, 0.0368872694671154, -0.10327007621526718, -0.007786073721945286, 0.06199343129992485, 0.33103060722351074, 0.12306113541126251, 0.6542930006980896, -0.3218197822570801, 0.07857304066419601, 0.0717853382229805, -0.11127469688653946, -0.04946545884013176, -0.2642785906791687, 0.37484487891197205, 0.35070130228996277, 0.42138954997062683, 0.0017583259614184499, -0.21087969839572906, 0.07758675515651703, -0.0007565638516098261, 0.4866611659526825, -0.5306176543235779, -0.16757017374038696, -0.0006423361483030021, -0.0017541599227115512, 0.1149415448307991, -0.3333567678928375, -0.4319969713687897, 0.40041080117225647, 0.0017656541895121336, 0.0008830697042867541, 0.26931238174438477, -0.12927469611167908, -0.16098131239414215, -0.3095148801803589, -0.05091419816017151, -0.044749774038791656, 0.7691954970359802, -0.300676554441452, -0.0014932983322069049, 0.2460438460111618, -0.0003396444662939757, -0.06635583192110062, 0.12399217486381531, -0.18703263998031616, -0.11711858958005905, -0.3413872718811035, 0.01059242058545351, 0.4256232976913452, 0.1894066333770752, 0.36368438601493835, 0.2550373375415802, -0.2633395493030548, 0.016465231776237488, -0.008298573084175587, 0.008832876570522785, 0.031138209626078606, -0.33086681365966797, 0.24446825683116913, 0.22647929191589355, -0.046009648591279984, 0.0005078247049823403, 0.07474064826965332, 0.041553400456905365, 0.00025832338724285364, -0.046996939927339554, 0.1467639058828354, 0.06657775491476059, 0.0002914713113568723, -0.0005063664284534752, -0.014219053089618683, 0.07023009657859802, 0.2731492221355438, -0.1181943416595459, 0.0005091842031106353, -0.00025929207913577557, -0.09257089346647263, -0.18241338431835175, 0.09227394312620163, -0.05028875917196274, -0.16410306096076965, 0.06760768592357635, -0.2556530833244324, 0.12853270769119263, -0.00045792432501912117, 0.03464486077427864, -0.0007497305632568896, 0.009838671423494816, -0.04091572016477585, -0.12109241634607315, -0.08615688234567642, -0.06109938025474548, 0.0059281918220222, 0.042865123599767685, -0.04379696026444435, -0.06995200365781784, 0.08113927394151688, 0.06602170318365097, -0.10628600418567657, 0.52143394947052, 0.08528998494148254, 0.08537553995847702, -0.054117970168590546, 0.2667917013168335, -0.13014361262321472, -0.4582613706588745, -0.0017869573784992099, 0.07870844006538391, 0.4668833315372467, -0.000409441243391484, 0.1477888524532318, 0.43226730823516846, -0.0376589335501194, -0.0005656180437654257, 0.0017776754684746265, 0.09394340217113495, -0.015883643180131912, -0.230861097574234, -0.20368592441082, -0.0017954626819118857, 0.00022014952264726162, -0.14895857870578766, 0.2241537719964981, 0.038389042019844055, -0.45204952359199524, -0.8239694237709045, 1.0444051027297974, 0.5578999519348145, 0.4101357161998749, 0.0011205337941646576, 0.669596254825592, 0.0018553590634837747, 0.02351691760122776, -0.07450312376022339, 0.06467840075492859, 0.18719206750392914, -0.6726787686347961, -0.006011772435158491, 0.8302408456802368, -0.02803012542426586, -0.3272656500339508, -0.3308612108230591, -0.03338335454463959, 0.1484202891588211, 0.5594616532325745, 0.49508020281791687, -0.019120145589113235, -0.038827139884233475, 0.6764018535614014, -0.3691624104976654, -1.3363349437713623, 0.0008847275748848915, -0.21529582142829895, -0.14630812406539917, -0.0003716380160767585, -0.5593083500862122, 0.1939728558063507, 2.061246633529663, -0.0002704994403757155, -0.0008797991904430091, -0.10305515676736832, 0.3146921396255493, 1.3594379425048828, -0.24403922259807587, 0.000888683891389519, 0.00045948129263706505, -0.15759339928627014, -0.395891010761261, -0.2238912731409073, 0.021435292437672615, 0.05627185478806496, -0.27189376950263977, -0.3738657236099243, 0.3112521171569824, -0.0006053833640180528, -0.09231779724359512, 0.00001827070263971109, -0.04108994081616402, 0.49498048424720764, -0.13339142501354218, -0.5115227103233337, -0.20929455757141113, 0.00391679210588336, 0.21160900592803955, 0.5038384795188904, -1.072025179862976, -0.5561996102333069, 0.2701442241668701, 0.09817565977573395, 0.5844644904136658, -0.478762686252594, -0.08837853372097015, 0.19713425636291504, 0.12353238463401794, -0.15599043667316437, 0.045704592019319534, -0.0005059373797848821, -0.07449718564748764, -0.04152028635144234, -0.00025660672690719366, 0.04675549641251564, -0.146170973777771, -0.06618519872426987, -0.0002895499346777797, 0.0005045013967901468, 0.014130297116935253, -0.06996616721153259, -0.2723378539085388, 0.11790040135383606, -0.0005072951898910105, 0.00025778505369089544, 0.09232106059789658, 0.1824122816324234, -0.09198266267776489, 0.05018199235200882, 0.16366508603096008, -0.06770922243595123, 0.25391554832458496, -0.1282871812582016, 0.0004566810675896704, -0.034631818532943726, 0.0007456625462509692, -0.00983099639415741, 0.04078377038240433, 0.12072280049324036, 0.08585655689239502, 0.06099895387887955, -0.0059050992131233215, -0.04284881800413132, 0.043647848069667816, 0.06965922564268112, -0.08062715828418732, -0.06578261405229568, 0.10576919466257095, -0.5204675197601318, -0.08504265546798706, -0.08517022430896759, 0.05394909903407097, -0.2650063931941986, 0.12985999882221222, 0.042131759226322174, -0.00048139269347302616, -0.0712202712893486, -0.0409548245370388, -0.00023388968838844448, 0.04391913488507271, -0.13914896547794342, -0.06165938451886177, -0.0002640120801515877, 0.0004801081959158182, 0.013021810911595821, -0.0666898861527443, -0.2609275281429291, 0.11369930952787399, -0.0004826096701435745, 0.0002377671335125342, 0.08893375843763351, 0.18164725601673126, -0.0879211574792862, 0.04864036664366722, 0.15804988145828247, -0.06722678244113922, 0.23153385519981384, -0.12454848736524582, 0.00044041441287845373, -0.03428409993648529, 0.0006919614388607442, -0.009688136167824268, 0.038768187165260315, 0.11561090499162674, 0.08235635608434677, 0.05977437645196915, -0.005601212382316589, -0.04282292723655701, 0.041392575949430466, 0.06597298383712769, -0.07367199659347534, -0.0627877414226532, 0.09877132624387741, -0.5084586143493652, -0.08134496957063675, -0.08204302936792374, 0.05150195583701134, -0.24581803381443024, 0.1257057785987854, 0.4618728458881378, -0.009479682892560959, -0.9373345375061035, 0.44757264852523804, -0.0007915387395769358, 0.5984233021736145, -0.46294474601745605, -0.16378189623355865, -0.0014031579485163093, 0.009439872577786446, 0.7270568013191223, -0.5594801902770996, 0.19986175000667572, 0.3305337429046631, -0.00951989833265543, 0.000038635869714198634, 0.377541184425354, 2.21317195892334, -1.042068600654602, -0.4786689281463623, 0.16662494838237762, -0.0032548869494348764, 0.02386440336704254, -0.3657892644405365, 0.006909098941832781, 0.5331393480300903, 0.006947704590857029, -0.4587465226650238, 1.5214965343475342, -0.6465907096862793, -0.1377299278974533, -1.587319254875183, -0.039459921419620514, 1.8758504390716553, 1.618918776512146, 0.4373326301574707, -2.4144742488861084, -0.6596971154212952, 1.0421464443206787, 0.9437686800956726, -0.951436460018158, -0.5692523121833801, -0.46630746126174927, -0.30629289150238037, 0.351859986782074, -0.9506072998046875, -0.0012368711177259684, 0.025579305365681648, -0.0048139370046556, -0.000702021352481097, -0.47828054428100586, 0.23939496278762817, 0.7998341917991638, -0.0007516267942264676, 0.0012308891164138913, -0.10375065356492996, 0.3123628497123718, 0.8545770049095154, -0.3372556269168854, -0.0012419566046446562, 0.0006152829737402499, -0.2197350114583969, -0.5684774518013, 0.049331359565258026, 0.0915074422955513, 0.38104942440986633, -0.4477134346961975, -0.5604031085968018, 0.2972175180912018, 0.0008048705640248954, -0.2521461248397827, 0.0015113444533199072, 0.03442903608083725, 0.15869882702827454, -0.09192898869514465, -0.0890994518995285, 0.1671290546655655, -0.0012254365719854832, 0.08302882313728333, 0.16517993807792664, -0.622158408164978, -0.6624857187271118, 0.2391817569732666, 0.1305626779794693, -0.1539379060268402, -0.26302284002304077, -0.08446813374757767, 0.21938838064670563, -0.0766017809510231, -0.10159262269735336, 0.050873614847660065, -0.0005282291676849127, -0.07795210182666779, -0.04197446256875992, -0.0002768623817246407, 0.05078893527388573, -0.15630871057510376, -0.07193145155906677, -0.00031241332180798054, 0.0005266399239189923, 0.015717433765530586, -0.07398004829883575, -0.28130051493644714, 0.12156413495540619, -0.0005297132884152234, 0.0002754804154392332, 0.09570446610450745, 0.18113192915916443, -0.0957581028342247, 0.05135704576969147, 0.17109978199005127, -0.06445471197366714, 0.282252699136734, -0.1310761421918869, 0.00047146735596470535, -0.0345398485660553, 0.0007935124449431896, -0.010221206583082676, 0.04264311492443085, 0.12409649044275284, 0.0900336280465126, 0.061770595610141754, -0.006180869415402412, -0.04285741224884987, 0.04570973664522171, 0.07416614890098572, -0.08637772500514984, -0.06945353746414185, 0.11219058930873871, -0.5221068263053894, -0.08805125206708908, -0.08704201132059097, 0.05507941171526909, -0.29431313276290894, 0.13303188979625702, -0.43591830134391785, 0.0026051998138427734, -0.16571123898029327, -0.15052831172943115, 0.0005708119715563953, -0.1132446676492691, -0.8892282247543335, 0.5056381821632385, 0.0007023268844932318, -0.0025937429163604975, -0.054398272186517715, -0.028567373752593994, 0.1870112121105194, 0.262066125869751, 0.0026133377104997635, -0.0004202396667096764, 0.09235364198684692, 0.09905479103326797, -0.3225443363189697, 0.1187380999326706, 0.6526813507080078, -0.9110581874847412, 1.6551988124847412, -0.09481830894947052, -0.0018270312575623393, -0.21378827095031738, -0.0021017175167798996, -0.04424789175391197, 0.2073270082473755, 0.21204115450382233, -0.24814724922180176, -0.005013611167669296, 0.013698170892894268, 0.007099536247551441, 0.26376569271087646, -0.3342418968677521, 0.3278276026248932, 0.013193562626838684, 0.13186341524124146, -0.5368125438690186, -0.591418981552124, -0.07111098617315292, 0.05829261988401413, -0.692347526550293, 0.4270687997341156, 0.04040222615003586, -0.00046711438335478306, -0.06941745430231094, -0.04061613231897354, -0.00022067510872147977, 0.0425659716129303, -0.13561469316482544, -0.059406179934740067, -0.00024919339921325445, 0.00046593110891990364, 0.012487178668379784, -0.06500277668237686, -0.254219114780426, 0.1112377867102623, -0.00046826121979393065, 0.00022611905296798795, 0.08704091608524323, 0.1802230179309845, -0.08560074120759964, 0.04770299047231674, 0.15491405129432678, -0.06611941754817963, 0.2203383892774582, -0.12221262603998184, 0.00043098736205138266, -0.03400259464979172, 0.0006607057875953615, -0.00965035893023014, 0.0375685915350914, 0.11241298913955688, 0.08051597326993942, 0.05898716300725937, -0.005426369607448578, -0.04278584569692612, 0.04004792869091034, 0.06405214220285416, -0.06955108791589737, -0.06124620884656906, 0.0947236493229866, -0.5004215836524963, -0.07912515103816986, -0.07999011874198914, 0.04987332969903946, -0.2371876984834671, 0.12318775057792664,
//				0.6901300549507141, 1.704474687576294, -0.9687473773956299, -1.2930841445922852, -0.9338381290435791, 1.6043508052825928, 1.2994632720947266, 1.230618953704834, 2.3070993423461914, -1.1933521032333374, 1.0807058811187744, -1.5149078369140625, -0.9341227412223816, 2.5107598304748535, -1.790238380432129, -2.0515379905700684, 0.8451696038246155, -4.583637714385986, -1.136380910873413, 1.7953376770019531, -0.6469458937644958, 1.219975471496582, -1.2527562379837036, 2.1140213012695312, 1.060714840888977, -1.2329622507095337, -1.0065762996673584, -1.7097347974777222, -1.5199288129806519, 1.0738246440887451, 1.3744709491729736, 0.753139853477478, 3.5273661613464355, -2.5095434188842773, -1.0308066606521606, -1.2986078262329102, -0.8319225907325745, 4.4455437660217285, -1.3989495038986206, 3.403379440307617, 5.923897743225098, -0.24887709319591522, 0.8698007464408875, 0.407216876745224, -1.0022640228271484, -1.2339640855789185, -0.9570043087005615, 1.8462191820144653, 1.2210290431976318, 1.060330867767334, 1.2461848258972168, 1.309513807296753, 1.3544074296951294, -1.1165270805358887, 0.9731394648551941
//				};
//const double bias1[] = {
//				1.3557686805725098,-0.0011195200495421886,-0.49853014945983887,-0.25821056962013245,-0.00007075702887959778,0.8605014085769653,-0.8878028988838196,-1.0331623554229736,-0.00016286171739920974,0.0011141926515847445,0.32051485776901245,-0.8163031935691833,-1.2377502918243408,1.015961766242981,-0.0011240891180932522,-0.00001602730480954051,0.8686270117759705,-0.571297824382782,-0.4957503378391266,0.01607299968600273,0.8185232877731323,0.18127983808517456,-0.5561781525611877,-1.1091605424880981,0.0008249750244431198,0.05762368068099022,0.0008428663713857532,-0.20992329716682434,0.18099403381347656,-0.2606341242790222,0.4660646319389343,-0.10349272191524506,-0.008495241403579712,0.05631973221898079,0.18313223123550415,1.2055988311767578,0.45534032583236694,-0.7214757204055786,-0.06855902820825577,-1.5914053916931152,-0.2573731243610382,0.09272667020559311,-0.49332112073898315,-0.14433076977729797,0.9011315703392029,
//				0.12690366804599762,0.18970216810703278,-0.45578712224960327,-0.7853198647499084,-0.29402977228164673,-0.5204983949661255,0.9815456867218018,0.63997882604599,-1.6026157140731812,-0.6551286578178406,0.6440377235412598,-0.7691146731376648,-0.31817880272865295,0.6766958236694336,-0.7952251434326172,-0.0794668048620224,0.3965248167514801,0.838322103023529,-0.6499722599983215,-0.3383297622203827,-0.20281827449798584,0.6581531763076782,-0.6601420044898987,0.9980278015136719,0.6410497426986694,0.32596322894096375,-0.6336778998374939,0.3144475519657135,-1.0139609575271606,0.9589889049530029,0.6606622934341431,0.0660581886768341,-1.2605342864990234,-0.4737813472747803,-0.3610920011997223,-0.6609846353530884,-0.09184200316667557,-0.5410574078559875,-0.6563600301742554,0.0920112207531929,-0.7250165939331055,-0.8159778118133545,0.27656275033950806,-0.2761504650115967,-0.022540761157870293,-0.6580978631973267,-0.08883436024188995,-0.588935375213623,0.6570825576782227,0.6408145427703857,0.07109013199806213,-0.2958974540233612,0.659892201423645,0.03295978158712387,0.6288780570030212,
//				0.8138110041618347
//				};

rovib_levels EvJ_AB;

double mass[3];

double Ze[3];

char name_particle[3][15];

double D_lim;

const double Ev_BC[] = { 0.2700269, 0.7784873, 1.2587546, 1.7104634, 2.1335621, 2.5282077, 2.8945442, 3.2324472, 3.5412963, 3.8197915, 4.0657959, 4.2761701, 4.4466046, 4.5716686, 4.6463902, 4.6741401 };
const int dim_Ev_BC = 16;
const double Ev_AB[] = { 0.293782678,  0.746282855,  1.175116012,  1.571627494,  1.940330944,  2.287144196,  2.616289392,  2.929904556,  3.22786679,  3.508072117,  3.767079327,  4.000911172,  4.205920274,  4.379254676,  4.518026827,  4.616721765,  4.664025281,  4.673910605,  4.676939819};
const int dim_Ev_AB = 19;
const double Ev_AC[] = { 0.293782678,  0.746282855,  1.175116012,  1.571627494,  1.940330944,  2.287144196,  2.616289392,  2.929904556,  3.22786679,  3.508072117,  3.767079327,  4.000911172,  4.205920274,  4.379254676,  4.518026827,  4.616721765,  4.664025281,  4.673910605,  4.676939819 };
const int dim_Ev_AC = 19;

double re_AB;
double re_AC;
double re_BC;

double Te_AB;
double Te_AC;
double Te_BC;

NNet net1;

NNet *net;
int Num_net = 0;

double frac_N(int N) {
	switch (Num_net) {
		case 0:
			return 0.;
		case 1:
			return 1.;
		case 2:
			return 0.5;
		case 3:
			return 0.3333333333333333333333333;
		case 4:
			return 0.25;
		case 5:
			return 0.2;
		case 6:
			return 0.1666666666666666666666666;
		default:
			return 1./Num_net;
		}
}

int init_U(){

//	net1.init_net(N_neuron1, n_link1, weights1, bias1);

	return 0;
}

int init_U(char* pes_file) {

	FILE* read;

	read = fopen(pes_file, "r");

	if(!(read = fopen(pes_file, "r"))){
        printf("There is no File with PES data --- % !!!\n", pes_file);
        return 1;
    }

	char strbuf[255];
	int i, j, pes_type = 0, *N_neuron, **n_link;
	double **w, **b;
	char ch;

	if (fscanf(read, "%lf %lf %lf", &mass[0], &mass[1], &mass[2]) != 3)
		return 2;

	if (fscanf(read, "%lf %lf %lf", &Ze[0], &Ze[1], &Ze[2]) != 3)
		return 2;

	if (fscanf(read, "%s %s %s", name_particle[0], name_particle[1], name_particle[2]) != 3)
		return 2;

	fscanf(read, "%s", strbuf);
	if (strcmp(strbuf, "PIP-NN") == 0)
		pes_type = 1;
	else
		return 2;

	if (fscanf(read, "%d", &Num_net) != 1)
		return 3;
	
	if (Num_net <= 0)
		return 3;

	net = new NNet[Num_net];
	
	N_neuron = (int*)calloc(Num_net, sizeof(int));
	n_link = (int**)malloc(Num_net * sizeof(int*));
	w = (double**)malloc(Num_net * sizeof(double*));
	b = (double**)malloc(Num_net * sizeof(double*));

	for(i=0; i<Num_net; i++){
		if (fscanf(read, "%d", &N_neuron[i]) != 1) // potential place for memory leak
			return 4;
		
		//printf("N_neuron=%d\n", N_neuron[i]);

		n_link[i] = (int*)malloc(N_neuron[i] * sizeof(int));

		for(j=0; j<N_neuron[i]; j++){
			if (fscanf(read, "%d", &n_link[i][j]) != 1) // potential place for memory leak
				return 4;
			//printf("%d ", n_link[i][j]);
		}
		
		int dim_w = 0, dim_b = 0;

		for(j=0; j<N_neuron[i]-1; j++){
			dim_w += n_link[i][j]*n_link[i][j+1];
			dim_b += n_link[i][j+1];
		}

		//printf("\ndim_w=%d dim_b=%d\n", dim_w, dim_b);

		w[i] = (double*)malloc(dim_w * sizeof(double));

		for(j=0; j< dim_w; j++){
			if (fscanf(read, "%lf", &w[i][j]) != 1) // potential place for memory leak
				return 4;
			//printf("%f ", w[i][j]);
		}

		b[i] = (double*)malloc(dim_b * sizeof(double));

		for(j=0; j<dim_b; j++){
			if (fscanf(read, "%lf", &b[i][j]) != 1) // potential place for memory leak
				return 4;
			//printf("%f ", b[i][j]);
		}

		net[i].init_net(N_neuron[i], n_link[i], w[i], b[i]);
	}

	for(i=0; i<Num_net; i++){
		free(n_link[i]);
		free(w[i]);
		free(b[i]);
	}

	free(N_neuron);
	free(n_link);
	free(w);
	free(b);

	fscanf(read, "%c", &ch);
	if (fscanf(read, "%c", &ch) == 1) {
		if (ch == '#') {
			if (fscanf(read, "%lf", &D_lim) != 1)
				return 4;
			if (fscanf(read, "%lf %lf %lf", &re_AB, &re_AC, &re_BC) != 3)
				return 4;
			if (fscanf(read, "%lf %lf %lf", &Te_AB, &Te_AC, &Te_BC) != 3)
				return 4;
		}
		else {
			return 4;
		}
	}
	else {
		U_properties();
	}

	fclose(read);

	return 0;
}

int U_properties() {

	double inp[3], r[3], U[3];

	for(int i=0; i<3; i++)
		inp[i] = 20.;

	D_lim = U_dist(inp);

	for(int j=0; j<3; j++){
		double U1, U2, U0, dr;
		for(int i=0; i<3; i++)
			inp[i] = 20.;
		inp[j] = 1.;

		for(int i=0; i<50; i++){
			
			U0 = U_dist(inp);

			inp[j] += 0.001;
			U2 = U_dist(inp);

			inp[j] -= 0.002;
			U1 = U_dist(inp);

			dr = (U2-U1)*0.5*0.001/(U2-2*U0+U1);

			if(fabs(dr>0.3))
				dr = dr/fabs(dr)*0.3;

			if(fabs(dr)<1e-8)
				break;
			else
				inp[j] -= dr*0.5;
		}

		r[j] = inp[j];
		U[j] = U0;

		switch(j){
			case 0:
				re_AB = inp[j];
				Te_AB = U0;
			break;
			case 1:
				re_AC = inp[j];
				Te_AC = U0;
			break;
			case 2:
				re_BC = inp[j];
				Te_BC = U0;
			break;
		}
		//printf("r=%.10f\tU=%.10f\n", inp[j], U0 * 8.064877E+3);
	}

	printf("\tPlease add this block to file, defining PES data:\n#\n%.10f\n%.10f %.10f %.10f\n%.10f %.10f %.10f", D_lim, r[0], r[1], r[2], U[0], U[1], U[2]);

	return 0;
}

int bound_states(double x1, double xN, int N, int J, int order, int r_type, int *N_levels) {

	double h, gamma, *a, *b, *w, *c, x, *V, r[3];
	int i, j, k;
	lapack_int *ipiv;
	unsigned long int t_buf;

	h = (xN - x1) / N;

	switch(r_type){
		case 0:
			gamma =  mass[0]*mass[1]/(mass[0]+mass[1]);
			break;
		case 1:
			gamma =  mass[0]*mass[2] / (mass[0] + mass[2]);
			break;
		case 2:
			gamma =  mass[2]*mass[1] / (mass[2] + mass[1]);
			break;
		default:
			return 1;
	}
	gamma = 1./478.450668 / gamma;

	a = (double*)calloc((N + 1) * (N + 1), sizeof(double));
	b = (double*)calloc((N + 1) * (N + 1), sizeof(double));
	c = (double*)calloc((N + 1) * (N + 1), sizeof(double));
	w = (double*)calloc((N + 1), sizeof(double));
	V = (double*)calloc((N + 1), sizeof(double));
	ipiv = (lapack_int*)calloc((N + 1), sizeof(lapack_int));

	t_buf = time(NULL);                              // Calculating of current time
	switch(order) {
		case 4:
		// Numerov method for TISE1D 4-th order
			for(i=0; i<N+1; i++){
				a[i*(N+1)+i] = -2./h/h*gamma;
				if(i<N) a[i*(N+1)+i+1] = 1./h/h*gamma;
				if(i>0) a[i*(N+1)+i-1] = 1./h/h*gamma;
			}

			for(i=0; i<N+1; i++){
				b[i*(N+1)+i] = 10./12.;
				if(i<N) b[i*(N+1)+i+1] = 1./12;
				if(i>0) b[i*(N+1)+i-1] = 1./12;
			}
			break;
		case 6:
			// Numerov method for TISE1D 6-th order
				for(i=0; i<N+1; i++){
					a[i*(N+1)+i] = -2.5/h/h*gamma;
					if(i<N) a[i*(N+1)+i+1] = 4./3./h/h*gamma;
					if(i>0) a[i*(N+1)+i-1] = 4./3./h/h*gamma;
					if(i>1) a[i*(N+1)+i-2] = -1./12./h/h*gamma;
					if(i<N-1) a[i*(N+1)+i+2] = -1./12./h/h*gamma;
				}

				for(i=0; i<N+1; i++){
					b[i*(N+1)+i] = 14./15.;
					if(i<N) b[i*(N+1)+i+1] = 2./45.;
					if(i>0) b[i*(N+1)+i-1] = 2./45.;
					if(i>1) b[i*(N+1)+i-2] = -1./90.;
					if(i<N-1) b[i*(N+1)+i+2] = -1./90.;
				}
			break;
		case 8:
			// Numerov method for TISE1D 8-th order
			for(i=0; i<N+1; i++){
				a[i*(N+1)+i] = -49./18./h/h*gamma;
				if(i<N) a[i*(N+1)+i+1] = 1.5/h/h*gamma;
				if(i>0) a[i*(N+1)+i-1] = 1.5/h/h*gamma;
				if(i>1) a[i*(N+1)+i-2] = -3./20./h/h*gamma;
				if(i<N-1) a[i*(N+1)+i+2] = -3./20./h/h*gamma;
				if(i>2) a[i*(N+1)+i-3] = 1./90./h/h*gamma;
				if(i<N-2) a[i*(N+1)+i+3] = 1./90./h/h*gamma;
			}

			for(i=0; i<N+1; i++){
				b[i*(N+1)+i] = 54./56.;
				if(i<N) b[i*(N+1)+i+1] = 15./560.;
				if(i>0) b[i*(N+1)+i-1] = 15./560.;
				if(i>1) b[i*(N+1)+i-2] = -6./560.;
				if(i<N-1) b[i*(N+1)+i+2] = -6./560.;
				if(i>2) b[i*(N+1)+i-3] = 1./560.;
				if(i<N-2) b[i*(N+1)+i+3] = 1./560.;
			}
			break;
		case 10:
			// Numerov method for TISE1D 10-th order
			for(i=0; i<N+1; i++){
				a[i*(N+1)+i] = -14350./5040./h/h*gamma;
				if(i<N) a[i*(N+1)+i+1] = 8064./5040./h/h*gamma;
				if(i>0) a[i*(N+1)+i-1] = 8064./5040./h/h*gamma;
				if(i>1) a[i*(N+1)+i-2] = -1008./5040./h/h*gamma;
				if(i<N-1) a[i*(N+1)+i+2] = -1008./5040./h/h*gamma;
				if(i>2) a[i*(N+1)+i-3] = 128./5040./h/h*gamma;
				if(i<N-2) a[i*(N+1)+i+3] = 128./5040./h/h*gamma;
				if(i>3) a[i*(N+1)+i-4] = -9./5040./h/h*gamma;
				if(i<N-3) a[i*(N+1)+i+4] = -9./5040./h/h*gamma;
			}

			for(i=0; i<N+1; i++){
				b[i*(N+1)+i] = 1. - 70./3150;
				if(i<N) b[i*(N+1)+i+1] = 56./3150.;
				if(i>0) b[i*(N+1)+i-1] = 56./3150.;
				if(i>1) b[i*(N+1)+i-2] = -28./3150.;
				if(i<N-1) b[i*(N+1)+i+2] = -28./3150.;
				if(i>2) b[i*(N+1)+i-3] = 8./3150.;
				if(i<N-2) b[i*(N+1)+i+3] = 8./3150.;
				if(i>3) b[i*(N+1)+i-4] = -1./3150.;
				if(i<N-3) b[i*(N+1)+i+4] = -1./3150.;
			}
			break;
		default:
			// Numerov method for TISE1D 4-th order
			for(i=0; i<N+1; i++){
				a[i*(N+1)+i] = -2./h/h*gamma;
				if(i<N) a[i*(N+1)+i+1] = 1./h/h*gamma;
				if(i>0) a[i*(N+1)+i-1] = 1./h/h*gamma;
			}

			for(i=0; i<N+1; i++){
				b[i*(N+1)+i] = 10./12.;
				if(i<N) b[i*(N+1)+i+1] = 1./12;
				if(i>0) b[i*(N+1)+i-1] = 1./12;
			}
			break;
	}
	
	for(j=0; j<3; j++)
		r[j] = 20.;

	x = x1;
	for(i=0; i<N+1; i++){
		r[r_type] = x;
		V[i] = U_dist(r) + gamma*J*(J+1)/x/x;
		x += h;
	}

	for(i=0; i<N+1; i++){
		//c[i*(N+1)+i] = V(x1) + 1 / (478.450668 * 0.948204436)*J*(J+1);
		//
		c[i*(N+1)+i] = V[i];
	}

//	printf("\n\tMatrixes A and B were filled for %d seconds.\n\n", time(NULL) - t_buf);

//	t_buf = time(NULL);                              // Calculating of current time

	LAPACKE_dgetrf(LAPACK_ROW_MAJOR, N+1, N+1, b, N+1, ipiv);

	LAPACKE_dgetri(LAPACK_ROW_MAJOR, N+1, b, N+1, ipiv);
	
//	printf("\n\tMatrix was inverted for %d seconds.\n\n", time(NULL) - t_buf);

//	printf("\n\tMatrix multiplication.\n\n");
//	t_buf = time(NULL);                              // Calculating of current time

	cblas_dgemm(CblasRowMajor, CblasNoTrans, CblasNoTrans, N+1, N+1, N+1, -1.0, b, N+1, a, N+1, 1.0, c, N+1);
	
//	printf("\n\tIt takes %d seconds.\n\n", time(NULL) - t_buf);

//	t_buf = time(NULL);
//	printf("\n\tCalculating Eigenvalues and Eigenvectors.\n\n");

	LAPACKE_dsyev(LAPACK_ROW_MAJOR, 'N', 'U', N+1, c, N+1, w);

//	printf("\n\tEigenvalues were found for %d seconds.\n\n", time(NULL)-t_buf);
	
	
	for(i=0; i<N+1; i++)
		if(w[i]<D_lim){
			//printf("%.2f ", w[i] * 8.064877E+3);
			//*N_levels++;
		}
		else 
			break;
	*N_levels = i;

	if(*N_levels>0){

		if(r_type==0) {

			if(J==0){
				EvJ_AB.v_max = *N_levels;
				EvJ_AB.Evj = (double**)malloc(EvJ_AB.v_max * sizeof(double*));
				EvJ_AB.Jimax = (int*)calloc(EvJ_AB.v_max, sizeof(int));
				for(i=0; i<EvJ_AB.v_max; i++)
					EvJ_AB.Evj[i] = (double*)calloc((J+1), sizeof(double));
			}

			for(i=0; i<EvJ_AB.v_max; i++){
				if(J!=0)
					EvJ_AB.Evj[i] = (double*)realloc(EvJ_AB.Evj[i], (J+1) * sizeof(double));

				EvJ_AB.Evj[i][J] = w[i];

				EvJ_AB.Jimax[i] = J+1;

			}

		}


	}
	else {
		/*if(r_type==0)
			EvJ_AB.v_max = 0;*/
	}
		

//	printf("\nN=%d", *N_levels);
//	printf("\n");

	free(V);
	free(ipiv);
	free(w);
	free(a);
	free(b);
	free(c);

	return 0;
}

int calc_rovib_levels() {

	EvJ_AB.v_max = 0;

	int N_vJ;
	for(int i=0; i<2000; i++){
		//printf("J=%d ", i);
		bound_states(0.4, 20., 500, i, 10, 0, &N_vJ);
		//printf("N=%d\n", N_vJ);
		if(N_vJ<=0)
   		 break;
	}



	return 0;
}



int deinit_U(){
	int i;

	for(i=0; i<Num_net; i++)
		net[i].delete_net();

	delete[] net;

	return 0;
}

double U_dist(double* r) {

	for(int i=0; i<Num_net; i++)
		if (net[i].is_init() == 0)
			return 0;

	int state, i;
	double input[N_COORDQ], out1, sum = 0.;

	input[0] = exp(-r[2]);
	input[1] = exp(-r[0]) + exp(-r[1]);
	input[2] = exp(-r[0] - r[1]);

	for(i=0; i<Num_net; i++){
		state = net[i].out(input, &out1);

		sum += out1;

		if (state != 0)
			return 0;
	}

	if(Num_net==1)
		return sum;
	else
		return sum*frac_N(Num_net);
}

double U_grad_dist(double* r, double* grad) {
	
	for(int i=0; i<Num_net; i++)
		if (net[i].is_init() == 0)
			return 0;

	int state, i;
	double input[N_COORDQ], out1, gradq1[N_COORDQ], sum;

	input[0] = exp(-r[2]);
	input[1] = exp(-r[0]) + exp(-r[1]);
	input[2] = exp(-r[0] - r[1]);

	for(i=0; i<3; i++)
		grad[i] = 0.;

	for(i=0; i<Num_net; i++){
		state = net[i].grad_input(input, &out1, gradq1);
		if (state != 0)
			return 0;

		sum += out1;

		grad[2] += gradq1[0] * (-input[0]);
		grad[0] += gradq1[1] * (-exp(-r[0])) + gradq1[2] * (-input[2]);
		grad[1] += gradq1[1] * (-exp(-r[1])) + gradq1[2] * (-input[2]);
	}

	if(Num_net==1)
		return sum;
	else {
		for(i=0; i<3; i++)
			grad[i] *= frac_N(Num_net);
		return sum*frac_N(Num_net);
	}
}

double U_grad_hess_dist(double* r, double* grad, double* hess) {
	for(int i=0; i<Num_net; i++)
		if (net[i].is_init() == 0)
			return 0;

	int state, i;
	double input[N_COORDQ], out1, gradq1[N_COORDQ], hessq1[N_COORDQ2], sum = 0.;

	for(i=0; i<3; i++)
		grad[i] = 0.;

	for(i=0; i<N_COORDQ*N_COORDQ; i++)
		hess[i] = 0.;

	input[0] = exp(-r[2]);
	input[1] = exp(-r[0]) + exp(-r[1]);
	input[2] = exp(-r[0] - r[1]);

	//state = net1.hess_grad_input(input, &out1, gradq1, hessq1);

	for(i=0; i<Num_net; i++){
		state = net[i].hess_grad_input(input, &out1, gradq1, hessq1);
		if (state != 0)
			return 0;

		sum += out1;

		grad[2] += gradq1[0] * (-input[0]);
		grad[0] += gradq1[1] * (-exp(-r[0])) + gradq1[2] * (-input[2]);
		grad[1] += gradq1[1] * (-exp(-r[1])) + gradq1[2] * (-input[2]);

			// Diagonal terms (use Wolfram Mathematica)
		hess[0 * N_COORDQ + 0] += input[2] * gradq1[2] + exp(-r[0]) * gradq1[1] + input[2] * input[2] * hessq1[8] + input[2] * exp(-r[0]) * 2 * hessq1[5] + exp(-2. * r[0]) * hessq1[4];
		hess[1 * N_COORDQ + 1] += input[2] * gradq1[2] + exp(-r[1]) * gradq1[1] + input[2] * input[2] * hessq1[8] + input[2] * exp(-r[1]) * 2 * hessq1[5] + exp(-2. * r[1]) * hessq1[4];
		hess[2 * N_COORDQ + 2] += input[0] * gradq1[0] + input[0] * input[0] * hessq1[0];

		// Off-diagonal terms (use Wolfram Mathematica)
		hess[0 * N_COORDQ + 1] += input[2] * gradq1[2] + input[2] * input[2] * hessq1[8] + input[1] * input[2] * hessq1[5] + input[2] * hessq1[4];
		hess[1 * N_COORDQ + 0] += hess[0 * N_COORDQ + 1];
		hess[0 * N_COORDQ + 2] += input[0] * input[2] * hessq1[2] + input[0] * exp(-r[0]) * hessq1[1];
		hess[2 * N_COORDQ + 0] += hess[0 * N_COORDQ + 2];
		hess[1 * N_COORDQ + 2] += input[0] * input[2] * hessq1[2] + input[0] * exp(-r[1]) * hessq1[1];
		hess[2 * N_COORDQ + 1] += hess[1 * N_COORDQ + 2];
	}
	
	if(Num_net==1)
		return sum;
	else {
		for(i=0; i<3; i++)
			grad[i] *= frac_N(Num_net);
		for(i=0; i<9; i++)
			hess[i] *= frac_N(Num_net);
		return sum*frac_N(Num_net);
	}
}

double U_cart(double* r) {
	double* ri, E;
	int i, j, N1, N2, M, N;

	N = N_ATOM;
	M = (N * (N - 1)) / 2;

	ri = (double*)calloc(M, sizeof(double));

	for (i = 0; i < M; i++) {
		IJ(N, i, &N1, &N2);
		ri[i] = 0.;

		for (j = 0; j < 3; j++)
			ri[i] += (r[3 * N1 + j] - r[3 * N2 + j]) * (r[3 * N1 + j] - r[3 * N2 + j]);

		ri[i] = sqrt(ri[i]);
	}

	E = U_dist(ri);

	free(ri);

	return E;
}

double U_grad_cart(double* r, double* grad) {
	double* ri, * gradi, E;
	int i, j, a, N1, N2, M, N;

	N = N_ATOM;
	M = (N * (N - 1)) / 2;

	ri = (double*)calloc(2 * M, sizeof(double));
	gradi = ri + M;

	for (i = 0; i < M; i++) {
		IJ(N, i, &N1, &N2);
		ri[i] = 0.;

		for (j = 0; j < 3; j++)
			ri[i] += sqr(r[3 * N1 + j] - r[3 * N2 + j]);

		ri[i] = sqrt(ri[i]);
	}

	E = U_grad_dist(ri, gradi);

	for (i = 0; i < 3 * N; i++)
		grad[i] = 0.;

	for (j = 0; j < M; j++)
		for (a = 0; a < 3; a++)
			for (i = 0; i < N; i++) {
				int j1;
				j1 = IJK(N, j, i);

				if (j1 >= 0)
					grad[3 * i + a] += gradi[j] * (r[3 * i + a] - r[3 * j1 + a]) / ri[j];
			}

	free(ri);

	return E;
}

double U_grad_hess_cart(double* r, double* grad, double* hess) {
	double* ri, * gradi, * hessi, E = 0, * Dr, * D2r;
	int i, j, k, l, N1, N2, N3, N4, a, b, M, N;

	N = N_ATOM;
	M = (N * (N - 1)) / 2;

	ri = (double*)calloc(2 * M, sizeof(double));
	gradi = ri + M;
	hessi = (double*)calloc(M * M, sizeof(double));
	Dr = (double*)calloc(3 * N * M, sizeof(double));
	D2r = (double*)calloc(3 * N * 3 * N * M, sizeof(double));

	for (i = 0; i < M; i++) {
		IJ(N, i, &N1, &N2);
		ri[i] = 0.;

		for (j = 0; j < 3; j++)
			ri[i] += sqr(r[3 * N1 + j] - r[3 * N2 + j]);

		ri[i] = sqrt(ri[i]);
	}

	for (k = 0; k < M; k++) {
		for (i = 0; i < N; i++)
			for (a = 0; a < 3; a++) {
				int j;
				j = IJK(N, k, i);

				if (j >= 0)
					Dr[3 * N * k + 3 * i + a] = (r[3 * i + a] - r[3 * j + a]) / ri[k];
			}
	}

	for (k = 0; k < M; k++) {
		IJ(N, k, &N1, &N2);
		for (j = 0; j < N; j++)
			for (b = 0; b < 3; b++)
				for (i = 0; i < N; i++)
					for (a = 0; a < 3; a++) {
						if (a == b) {
							double sign = 0.0;
							if (i == j) sign = 1.0;
							else sign = -1.0;
							if ((i == N1) && (j == N2) || (i == N2) && (j == N1) || (i == N1) && (j == N1) || (i == N2) && (j == N2))
								D2r[3 * N * 3 * N * k + 3 * N * (3 * j + b) + 3 * i + a] = sign / ri[k];
						}

						D2r[3 * N * 3 * N * k + 3 * N * (3 * j + b) + 3 * i + a] -= 1. / ri[k] * Dr[3 * N * k + 3 * i + a] * Dr[3 * N * k + 3 * j + b];

					}
	}

	E = U_grad_hess_dist(ri, gradi, hessi);

	for (i = 0; i < 3 * N; i++)
		grad[i] = 0.;

	for (k = 0; k < M; k++)
		for (i = 0; i < 3 * N; i++)
			grad[i] += gradi[k] * Dr[3 * N * k + i];

	for (i = 0; i < 3 * N * 3 * N; i++)
		hess[i] = 0.;

	for (k = 0; k < M; k++)
		for (l = 0; l < M; l++)
			for (i = 0; i < 3 * N; i++)
				for (j = 0; j < 3 * N; j++)
					hess[3 * N * j + i] += hessi[l * M + k] * Dr[3 * N * k + i] * Dr[3 * N * l + j];

	for (k = 0; k < M; k++)
		for (i = 0; i < 3 * N; i++)
			for (j = 0; j < 3 * N; j++)
				hess[3 * N * j + i] += gradi[k] * D2r[3 * N * 3 * N * k + 3 * N * j + i];

	free(Dr);
	free(D2r);
	free(hessi);
	free(ri);

	return E;
}

int IJ(int n, int k, int *i, int *j){
	int a, b = 0, c;
	
	if(n<=1){
		printf("IJ: ERROR IN ATOM AMOUNT (N) - IT SHOULD BE POSITIVE AND MORE THAN 1.\n\n");
		return 1;
	}
	
	if(k<0){
		printf("IJ: ERROR IN DISTANCE NUMBER (K) - IT SHOULD BE NONNEGATIVE INTEGER.\n\n");
		return 2;
	}
	
	if(k>=( n * ( n-1 ) )/2 ){
		printf("IJ: ERROR IN DISTANCE NUMBER (K) - IT SHOULD BE LESS THAN TOTAL DISTANCE AMOUT (N*(N-1)/2).\n\n");
		return 3;
	}

	k++;
	
	for(a=k; a>0; b++){
		n -= 1;
		c = a;
		a -= n;
	}
	
	*i = b-1;
	*j = b+c-1;
	
	return 0;
}

int IJK(int n, int k, int i){
	int N1, N2;
	
	IJ(n, k, &N1, &N2);
	
	if(N1==i) return N2; else
	if(N2==i) return N1; else
	return -1;
}
